digraph Tree {
node [shape=box, style="filled, rounded", color="black", fontname=helvetica] ;
edge [fontname=helvetica] ;
0 [label="petal length (cm) <= 2.6\ngini = 0.66\nsamples = 95\nvalue = [55, 49, 46]\nclass = setosa", fillcolor="#fdf8f3"] ;
1 [label="gini = 0.0\nsamples = 33\nvalue = [55, 0, 0]\nclass = setosa", fillcolor="#e58139"] ;
0 -> 1 [labeldistance=2.5, labelangle=45, headlabel="True"] ;
2 [label="petal width (cm) <= 1.65\ngini = 0.5\nsamples = 62\nvalue = [0, 49, 46]\nclass = versicolor", fillcolor="#f3fdf7"] ;
0 -> 2 [labeldistance=2.5, labelangle=-45, headlabel="False"] ;
3 [label="petal width (cm) <= 1.45\ngini = 0.11\nsamples = 33\nvalue = [0, 48, 3]\nclass = versicolor", fillcolor="#45e789"] ;
2 -> 3 ;
4 [label="gini = 0.0\nsamples = 21\nvalue = [0, 33, 0]\nclass = versicolor", fillcolor="#39e581"] ;
3 -> 4 ;
5 [label="sepal length (cm) <= 7.05\ngini = 0.28\nsamples = 12\nvalue = [0, 15, 3]\nclass = versicolor", fillcolor="#61ea9a"] ;
3 -> 5 ;
6 [label="petal length (cm) <= 4.95\ngini = 0.21\nsamples = 11\nvalue = [0, 15, 2]\nclass = versicolor", fillcolor="#53e892"] ;
5 -> 6 ;
7 [label="gini = 0.0\nsamples = 9\nvalue = [0, 15, 0]\nclass = versicolor", fillcolor="#39e581"] ;
6 -> 7 ;
8 [label="gini = 0.0\nsamples = 2\nvalue = [0, 0, 2]\nclass = virginica", fillcolor="#8139e5"] ;
6 -> 8 ;
9 [label="gini = 0.0\nsamples = 1\nvalue = [0, 0, 1]\nclass = virginica", fillcolor="#8139e5"] ;
5 -> 9 ;
10 [label="sepal width (cm) <= 3.15\ngini = 0.04\nsamples = 29\nvalue = [0, 1, 43]\nclass = virginica", fillcolor="#843ee6"] ;
2 -> 10 ;
11 [label="gini = 0.0\nsamples = 24\nvalue = [0, 0, 36]\nclass = virginica", fillcolor="#8139e5"] ;
10 -> 11 ;
12 [label="petal length (cm) <= 5.2\ngini = 0.22\nsamples = 5\nvalue = [0, 1, 7]\nclass = virginica", fillcolor="#9355e9"] ;
10 -> 12 ;
13 [label="gini = 0.0\nsamples = 1\nvalue = [0, 1, 0]\nclass = versicolor", fillcolor="#39e581"] ;
12 -> 13 ;
14 [label="gini = 0.0\nsamples = 4\nvalue = [0, 0, 7]\nclass = virginica", fillcolor="#8139e5"] ;
12 -> 14 ;
}